34 64
1 0.14258139 -0.15788116 0.13905643 0.124078035 0.038697384 -0.16766322 0.07707773 0.1397041 -0.25491253 -0.020804737 0.12715629 -0.1490024 -0.056829553 0.20625097 -0.13581656 0.21558094 -0.0621703 0.03244804 -0.030463701 0.11892148 0.3353959 0.07087702 0.4183623 -0.054840986 0.12847875 0.17435819 -0.25913537 -0.18589494 -0.30426311 -0.20794708 0.02847642 -0.0044249706 -0.20783244 -0.29551822 0.1124436 0.16311346 0.2359716 0.14768593 0.18736345 -0.03972324 -0.01445349 0.18091542 -0.12160087 -0.29392943 -0.026203783 -0.085062504 -0.038572185 -0.05558773 -0.022455802 0.23305719 -0.059367057 0.14762485 0.03254554 0.19709238 0.33434212 0.16440922 0.15765266 -0.16736063 -0.07876147 0.033687342 0.14015345 -0.23717828 -0.09158191 0.07403989
34 -0.099251635 0.12750037 0.20785113 0.08868121 -0.061248075 -0.21703722 0.071816996 0.06638568 -0.10655178 -0.11898027 0.19568726 0.06975193 0.32257396 -0.11872467 0.097889 -0.054429535 -0.18340807 0.04319217 0.071825184 0.15234898 -0.014171596 0.07874905 0.32161376 -0.16976877 0.04526771 0.19573097 -0.18301639 0.094022125 0.14530803 -0.020270139 -0.21118069 0.12837274 -0.40868303 -0.34583247 0.1688967 0.20392609 -0.043067895 0.35493273 0.3152678 0.049962692 0.28822535 0.075026676 -0.090982385 -0.23826854 0.043200754 0.12296898 0.05900687 -0.2590878 -0.10994017 0.151321 0.19046167 0.16788927 0.1013923 0.15507883 0.20915191 0.21380003 0.14898676 -0.070726715 0.06045465 -0.16155267 -0.009026662 -0.16328974 -0.14836891 0.08426013
33 -0.09005948 0.13694158 0.22304016 0.06614871 -0.051887114 -0.22682092 0.07959961 0.046144832 -0.09242589 -0.08778079 0.20592041 0.08467503 0.3173535 -0.1419607 0.08174745 -0.027646458 -0.17243145 0.048387542 0.08770464 0.15036087 -0.004877538 0.08175043 0.3224228 -0.16373158 0.046847474 0.1763196 -0.17934027 0.10619912 0.16812591 -0.0010170585 -0.221125 0.13952856 -0.41574478 -0.32358983 0.14528877 0.17621133 -0.009838801 0.3498922 0.33348915 0.03216929 0.29026204 0.09524204 -0.081470065 -0.2833508 0.06324309 0.14263527 0.053302996 -0.2648781 -0.11198809 0.13706744 0.19782583 0.14933322 0.06585215 0.14474177 0.22716941 0.19781561 0.15083511 -0.065085374 0.060225397 -0.1737296 -0.012640189 -0.17678848 -0.12620042 0.08059968
3 0.029293913 -0.11514066 0.18246117 0.07713537 0.010374813 -0.24819909 0.021931577 0.09418374 -0.22371677 -0.070273034 0.14491092 -0.040199086 0.18074659 0.024080545 0.021663232 0.036249444 -0.079457596 0.044806447 -0.023762995 0.16137879 0.17219551 0.07023999 0.3446765 -0.13464427 0.14875005 0.13355568 -0.30272722 -0.021897022 -0.07777884 -0.09910098 -0.12857747 0.07925247 -0.2358904 -0.33655 0.18297078 0.1437246 0.072865516 0.2570117 0.2736277 0.06142041 0.1310117 0.08872297 -0.10011816 -0.23424916 0.022774601 0.05316207 0.10161784 -0.13078815 -0.055288963 0.21788949 0.026050126 0.24123512 0.028272396 0.13303508 0.22205251 0.20137976 0.104096085 -0.066718474 0.050927978 0.013939312 0.029931463 -0.19789444 -0.16701339 0.07990469
2 0.12820439 -0.25572932 0.16178508 0.06581524 0.054538146 -0.27797973 0.053659096 0.11814692 -0.3366384 -0.03478573 0.12575893 -0.10441483 0.034560252 0.12482179 -0.01601812 0.12697355 -0.007542813 0.034310095 -0.061631143 0.1914791 0.326899 0.07726058 0.39467746 -0.09094864 0.22996596 0.07927624 -0.35903633 -0.08398193 -0.18064317 -0.15497574 -0.059514366 0.06943205 -0.14275372 -0.3258171 0.13664486 0.11660694 0.20778131 0.20681469 0.26223192 0.08669309 0.08248798 0.108449854 -0.061599538 -0.26933795 -0.032132134 0.0005255574 0.11363007 -0.07776767 -0.008961212 0.25239682 -0.07291337 0.26301736 -0.0041886074 0.13760981 0.26851702 0.22001794 0.12242585 -0.11777201 0.03054768 0.08242165 0.118023634 -0.23278089 -0.17226194 0.110529035
4 0.14819242 -0.2937165 0.20277631 0.07622393 0.04019497 -0.28293157 0.032248188 0.13089217 -0.32698312 -0.05565397 0.11625437 -0.12915714 0.03119867 0.121543705 -0.03858106 0.12702332 0.014108741 0.029027376 -0.08040232 0.19768953 0.33918685 0.074798636 0.4147655 -0.10636198 0.24818711 0.09576784 -0.3679096 -0.09486097 -0.21508723 -0.1520517 -0.031076211 0.085645154 -0.1594589 -0.34255737 0.15043935 0.09654962 0.20259519 0.22412959 0.26737532 0.07436849 0.048834436 0.119059674 -0.071552634 -0.25306383 0.005853364 -0.03239267 0.13476913 -0.049502958 -0.021550728 0.2599199 -0.094159745 0.27110863 -0.037967782 0.16570488 0.24698909 0.19995564 0.095687695 -0.08160277 0.016893884 0.11163636 0.09596198 -0.21899302 -0.15547155 0.10316139
32 -0.14541382 0.18681894 0.20056513 0.123041905 -0.067967154 -0.15310994 0.04780949 0.012687839 -0.0036811577 -0.048000988 0.32001662 0.061214518 0.2865064 -0.117009185 -0.024470601 0.021058077 -0.16937166 0.06981281 0.04809896 0.1597755 -0.07952516 0.093421586 0.23758915 -0.08524645 -0.12842637 0.26043442 -0.19214067 -0.035772722 -0.08990825 -0.093657 -0.1870722 0.002524388 -0.48571572 -0.28483784 0.1920027 0.22961809 0.004591585 0.15316248 0.2996172 -0.01992255 0.14973453 0.2072837 -0.13309167 -0.26380086 0.07590278 0.07507556 -0.07069094 -0.19782512 -0.06504702 0.093771264 0.2868446 0.10579961 0.11499392 0.101819955 0.25436693 0.20763646 0.15699573 -0.07449984 0.0067879055 -0.077016 -0.0047314656 -0.15110114 -0.0674422 0.13363369
14 0.09310746 -0.13197207 0.17623743 0.08499618 0.045484114 -0.21966444 0.043592993 0.07887691 -0.24227965 -0.058524754 0.124998406 -0.08711691 0.0911423 0.062095724 -0.031111946 0.12583007 -0.08186443 0.030427841 0.0069009135 0.1731357 0.21944402 0.08124727 0.3643633 -0.07669752 0.12826362 0.15056913 -0.25695276 -0.07305073 -0.13674407 -0.112147555 -0.044788055 0.041502498 -0.2621461 -0.31270286 0.1434815 0.13454215 0.13675298 0.19873486 0.258587 0.040360007 0.07813659 0.11564214 -0.07525109 -0.27137408 0.00858722 -0.0049355994 0.061838903 -0.13955955 -0.035606932 0.214381 0.011248257 0.18447454 0.00782829 0.16331306 0.25569028 0.18472995 0.11592868 -0.106466904 0.0028088551 0.0070073083 0.075528435 -0.225856 -0.11838023 0.09295759
24 -0.19675414 0.22066921 0.21703818 0.08293114 -0.09762556 -0.19708402 0.062913574 0.0001341049 -0.022785109 -0.07284018 0.31296426 0.12799378 0.36704072 -0.20128785 0.07626956 -0.06229371 -0.17706692 0.07251674 0.085876465 0.15159613 -0.14920974 0.0760824 0.24507336 -0.11014766 -0.075526446 0.23313047 -0.1674479 0.06615493 0.09907961 -0.047246736 -0.2777114 0.07145374 -0.5168812 -0.33334255 0.18368398 0.23830368 -0.05548 0.25994477 0.34905842 -0.006357373 0.27004683 0.17654441 -0.13521884 -0.27693576 0.118404895 0.13800092 -0.02631418 -0.2654462 -0.075271666 0.10418576 0.32297105 0.12857252 0.118971325 0.09791731 0.23245409 0.23150393 0.14183371 -0.053132623 0.06884869 -0.12216335 -0.03986743 -0.120726116 -0.10412512 0.14788216
9 -0.059384044 0.06606388 0.18220787 0.100786276 -0.01732815 -0.20501293 0.0838527 0.047049437 -0.13957095 -0.0874203 0.1739905 0.03402726 0.21097736 -0.042461853 0.05771827 0.04006091 -0.15425012 0.03264612 0.0651183 0.14636576 0.055191793 0.062783934 0.31998345 -0.13516267 0.06719577 0.17207967 -0.1976163 0.019522596 0.021365572 -0.06932655 -0.1432821 0.08207427 -0.3561146 -0.31578618 0.15450826 0.18790516 0.03913457 0.29121196 0.25889876 0.01527427 0.21868266 0.12407574 -0.091447644 -0.27111098 0.031797938 0.07205115 0.037365813 -0.19537 -0.072332494 0.16120258 0.13890594 0.13498476 0.07568596 0.14249577 0.2508805 0.20759384 0.13973482 -0.08973549 0.0074935346 -0.09122144 0.015479005 -0.19132307 -0.13004442 0.07289278
8 0.12778574 -0.23084807 0.19156758 0.05634014 0.053462394 -0.25572082 0.018697891 0.10059437 -0.3034171 -0.058262978 0.119703166 -0.116514124 0.061750233 0.096786305 -0.040477205 0.09041676 -0.035396725 0.027020162 -0.05381699 0.16554911 0.28437716 0.06260262 0.4031001 -0.09792752 0.19422245 0.121574774 -0.347994 -0.07941728 -0.1796332 -0.13608958 -0.0580059 0.09806559 -0.19245465 -0.31257585 0.16231593 0.101338394 0.18032484 0.23019844 0.25497904 0.081733525 0.0831256 0.10095008 -0.09250508 -0.2512158 -0.008250765 -0.014403738 0.12915586 -0.09828352 -0.03897685 0.25656614 -0.0618202 0.24757515 -0.017000321 0.15483306 0.24795085 0.21492967 0.12794721 -0.10747141 0.013680141 0.07669453 0.10518565 -0.22701976 -0.14021513 0.1130773
28 -0.13207366 0.14637814 0.19618663 0.08728343 -0.06660873 -0.18588643 0.049309094 0.02450376 -0.03474958 -0.052899122 0.27856094 0.055977445 0.29264048 -0.113779165 -0.003988694 -0.0072911964 -0.14237183 0.07925979 0.048427112 0.15327741 -0.0718863 0.099954315 0.23745649 -0.08426298 -0.09069952 0.23771182 -0.21650636 -0.0044868365 -0.04759098 -0.089371406 -0.19936465 0.034758396 -0.46300286 -0.30173013 0.16440284 0.22564632 0.02189376 0.18981038 0.3035697 -0.0029153537 0.17942211 0.16867533 -0.1309096 -0.26515993 0.0992645 0.096031755 -0.050779328 -0.2053926 -0.043508388 0.10819048 0.23123622 0.16564016 0.08615736 0.105862424 0.24443547 0.22353764 0.153881 -0.05676963 0.030466931 -0.062964484 -0.010125266 -0.12893471 -0.10751333 0.1576357
6 0.2446904 -0.1526128 0.11424617 0.18043318 0.10908605 -0.05078093 0.09559718 0.16761507 -0.21122593 0.01442744 0.1106588 -0.28405437 -0.2416814 0.36578882 -0.3370224 0.4424382 -0.13010803 0.019774146 0.026730916 0.1298856 0.4886769 0.07657072 0.5410075 -0.0103443125 0.025730353 0.3383604 -0.20034872 -0.40745717 -0.53163403 -0.33889088 0.20848843 -0.12881425 -0.3408675 -0.2768303 0.091681324 0.2788717 0.35260025 0.09963794 0.15134934 -0.18488966 -0.13382651 0.28588864 -0.1673634 -0.40303987 -0.025307968 -0.21408866 -0.19265293 -0.07526686 -0.05545305 0.21615493 -0.08881012 0.02430773 0.09098524 0.33415604 0.48580286 0.12667137 0.20801455 -0.2647167 -0.22157453 -0.062445603 0.24138005 -0.31810376 0.025499508 0.09253929
7 0.20918694 -0.048240177 0.11593504 0.19144735 0.0737816 -0.016046494 0.10612337 0.1389365 -0.17322588 0.022791164 0.12039219 -0.22843163 -0.17625692 0.31594622 -0.29487437 0.40593284 -0.17121662 0.026179628 0.038716067 0.10478881 0.39699244 0.06711656 0.5090108 -0.01567009 -0.0063711274 0.3461245 -0.14745185 -0.39142206 -0.47237515 -0.31952104 0.18342997 -0.12715594 -0.38204622 -0.28841838 0.08687626 0.2866407 0.27479893 0.108301684 0.12180365 -0.17409055 -0.073329546 0.28490132 -0.18423174 -0.38327384 -0.041487765 -0.19322154 -0.24257796 -0.11632444 -0.05887457 0.17541389 0.002082248 0.0031119292 0.12432913 0.312735 0.45449325 0.12933579 0.19636457 -0.25077796 -0.21669905 -0.084261656 0.22396426 -0.28978172 0.038977716 0.114078015
31 -0.033641264 0.047544856 0.19421607 0.07074115 -0.033084348 -0.2192528 0.050994437 0.0723058 -0.15232545 -0.08244056 0.16379166 0.03278761 0.22598836 -0.067137614 0.06258449 0.015319268 -0.13321385 0.03602335 0.03146873 0.16272205 0.06804815 0.06047157 0.32333678 -0.13844283 0.07678219 0.16889107 -0.21368559 0.0314646 0.05511889 -0.06285278 -0.17350079 0.10830925 -0.34015086 -0.3230209 0.16173066 0.1767553 0.041999534 0.29598823 0.26859018 0.050091356 0.20866372 0.10490057 -0.076634824 -0.23831365 0.03958293 0.09733052 0.053940903 -0.20088747 -0.07590337 0.16209683 0.12744413 0.17225997 0.06946097 0.14669546 0.21876547 0.21432123 0.13603532 -0.057484366 0.040650386 -0.09743675 0.011181562 -0.18071601 -0.120344944 0.08921008
30 -0.1925688 0.2503442 0.2547301 0.07925397 -0.11033262 -0.23391426 0.062448476 -0.002150015 -0.037770003 -0.11263663 0.2831297 0.13895507 0.41314048 -0.22865362 0.12983063 -0.097833805 -0.19574232 0.04720006 0.09668961 0.16676758 -0.12322157 0.088646986 0.27376562 -0.1443805 -0.033562556 0.20145904 -0.19709803 0.13211727 0.19170818 0.0033075733 -0.32834783 0.13316666 -0.5078911 -0.35037473 0.20781054 0.21669926 -0.092357896 0.35751858 0.38968968 0.046186022 0.33686343 0.119328186 -0.09419432 -0.29739252 0.083175294 0.17384496 0.02159682 -0.27986938 -0.108613454 0.09703121 0.30704787 0.1622986 0.13201438 0.10046939 0.2331465 0.25695276 0.17208767 -0.036730386 0.09033996 -0.18587895 -0.067013904 -0.14744094 -0.123279884 0.11312997
25 -0.2229114 0.26275223 0.20535555 0.11255212 -0.07910308 -0.14905384 0.052045062 -0.0043715066 0.05178739 -0.035436057 0.37723202 0.118969485 0.37016758 -0.1824218 -0.0033384087 -0.023116695 -0.17161989 0.08062865 0.05061217 0.1844388 -0.18960874 0.08007906 0.19755104 -0.10029308 -0.18184319 0.2629193 -0.20254344 -0.006344716 -0.057243727 -0.07525188 -0.23750342 0.020431964 -0.55363256 -0.31458235 0.21529856 0.25878856 -0.052920654 0.16139239 0.33082727 -0.022524215 0.1750666 0.23036373 -0.16343297 -0.29064563 0.121698536 0.104622245 -0.081362106 -0.20902643 -0.069708265 0.11227059 0.35277802 0.14724055 0.14076582 0.051037684 0.24286297 0.24002948 0.17142117 -0.030780884 0.058965627 -0.07311371 -0.0658188 -0.112526305 -0.0955251 0.16231799
29 -0.048347633 0.06704963 0.22010025 0.090890676 -0.039206333 -0.19160458 0.045994032 0.04399167 -0.09162333 -0.08433786 0.2199015 0.014074009 0.262291 -0.060432464 0.033140637 0.025013514 -0.12230368 0.028826853 0.02979916 0.16710018 0.02022508 0.07166419 0.30895236 -0.10907112 0.025318563 0.1709522 -0.2008037 0.009466059 -0.009268162 -0.08483507 -0.17835803 0.057820976 -0.37865868 -0.3308394 0.16327004 0.15771079 0.0150912 0.22663404 0.28270993 0.042075913 0.19099486 0.13192436 -0.106128044 -0.27398488 0.061261907 0.0881401 0.039563254 -0.18264437 -0.06782131 0.15195175 0.13923864 0.15562242 0.04061141 0.11733585 0.23104116 0.21931642 0.13191113 -0.06687925 0.0581092 -0.06422455 0.0033004023 -0.14196943 -0.10358275 0.101866
5 0.25875145 -0.18068694 0.11181116 0.1543939 0.09667536 -0.08965962 0.079582594 0.1612677 -0.251099 0.010616613 0.10493919 -0.25253502 -0.19933854 0.34919292 -0.26063532 0.39122874 -0.11644311 0.036475018 -0.011174571 0.14230683 0.47240612 0.07768389 0.5241553 -0.011577591 0.07712749 0.28691724 -0.24308608 -0.3631143 -0.47308594 -0.28481993 0.1473655 -0.08509469 -0.26162314 -0.2976608 0.08851592 0.2114741 0.33858752 0.124966465 0.16716774 -0.122674495 -0.11327745 0.25515082 -0.14190353 -0.37572718 -0.059697825 -0.18918428 -0.1498214 -0.07868395 -0.043409072 0.22957726 -0.07518164 0.061700072 0.070372425 0.2977474 0.4299487 0.17327616 0.20249604 -0.2524244 -0.18353932 -0.018320354 0.21013446 -0.3035024 -0.033404905 0.08083704
11 0.25659037 -0.16565004 0.12332276 0.16275765 0.09755751 -0.07671768 0.08781506 0.18280475 -0.24698022 0.03207648 0.072609104 -0.23804782 -0.2019451 0.35852367 -0.29983124 0.40265605 -0.11995594 0.03450573 -0.00025046966 0.10181452 0.4670474 0.05146138 0.5380417 -0.019840453 0.07425108 0.30253708 -0.2241222 -0.3823196 -0.48581523 -0.32683694 0.1926794 -0.09674971 -0.30248713 -0.28462324 0.11117901 0.22959705 0.32484755 0.11079873 0.15715092 -0.14192958 -0.09878856 0.25724584 -0.13914421 -0.35944524 -0.072934926 -0.20438485 -0.15281892 -0.0852582 -0.057354692 0.23160389 -0.061038986 0.049367223 0.07286579 0.3056827 0.45614472 0.16288942 0.19588226 -0.2617447 -0.19357467 -0.037368175 0.24417669 -0.3261145 -0.018199423 0.097102635
26 -0.26482508 0.30019975 0.21207747 0.13388397 -0.11485475 -0.16638902 0.066842295 -0.023934865 0.04939992 -0.05570075 0.39458245 0.11933017 0.42140743 -0.2314525 0.016474036 -0.05138025 -0.15316193 0.097314015 0.08473598 0.1999949 -0.24097842 0.11379401 0.17376362 -0.108774915 -0.20849428 0.2608152 -0.21960405 -0.0009660765 -0.041606527 -0.07264129 -0.27948716 0.038472105 -0.60963947 -0.32848528 0.23960598 0.2845778 -0.05261621 0.18260582 0.35507485 -0.035946194 0.2131549 0.2307984 -0.1421007 -0.27130908 0.15354976 0.14647903 -0.10527476 -0.24900834 -0.06837714 0.10880839 0.38295108 0.16457939 0.15606834 0.04884248 0.26219472 0.22813942 0.14322862 -0.0062469235 0.07036512 -0.10083815 -0.07727636 -0.115488276 -0.07965181 0.17809284
20 0.058556214 -0.10182673 0.16214393 0.08763951 0.029800255 -0.20629565 0.049878243 0.09308361 -0.21542129 -0.044222847 0.13937438 -0.065301426 0.100692995 0.061323356 -0.046511043 0.12161046 -0.0712967 0.04742327 0.0048848866 0.16305085 0.21927638 0.06391921 0.3811485 -0.08027407 0.11800782 0.15358056 -0.2597568 -0.08369182 -0.15446028 -0.1255716 -0.050969932 0.072068505 -0.2657783 -0.2849434 0.14553486 0.1439961 0.13731655 0.20050459 0.26081878 0.026514709 0.09496836 0.14463009 -0.08187235 -0.25456753 0.005087028 -0.009823205 0.05270879 -0.10439038 -0.04794732 0.19861701 0.008747441 0.16430117 0.050448984 0.15173951 0.2527767 0.21022573 0.14696555 -0.08958133 -0.00689627 -0.023888554 0.09225822 -0.20529442 -0.09493424 0.10459384
13 0.12887883 -0.19236526 0.17991652 0.062355787 0.03064471 -0.24316676 0.03309572 0.12450701 -0.25297925 -0.046242032 0.13868839 -0.10868096 0.05614191 0.12176364 -0.06371866 0.12497065 -0.06011432 0.049589965 -0.023689354 0.1552662 0.29595345 0.058267795 0.38098493 -0.086860344 0.15843518 0.12571351 -0.31292745 -0.12142063 -0.17842937 -0.13308533 -0.038422205 0.07219483 -0.1995949 -0.30588448 0.15424362 0.13601121 0.18475509 0.21198456 0.24229246 0.031615064 0.058153816 0.14221479 -0.08816719 -0.26312256 -0.0018377794 -0.041163336 0.051795408 -0.105899625 -0.021186005 0.24435578 -0.03401703 0.21111 0.003861485 0.15432106 0.28009894 0.20939517 0.13799688 -0.10819221 -0.008351589 0.031246057 0.106803425 -0.23016474 -0.13160565 0.08244489
22 0.14007862 -0.17713705 0.14375962 0.081330374 0.07011518 -0.18961008 0.052555725 0.12621808 -0.26554412 -0.019589202 0.12160685 -0.14517447 0.0026787308 0.15332472 -0.09683221 0.18721388 -0.05962123 0.025231346 -0.010380294 0.1467999 0.318993 0.074393466 0.40756688 -0.07739845 0.13507116 0.17916988 -0.2929688 -0.13936011 -0.26566917 -0.16980168 0.015286891 0.045654796 -0.23154292 -0.28986076 0.12110237 0.1569352 0.19739708 0.18804011 0.21541215 -0.021163013 0.013945491 0.16683678 -0.108697586 -0.281001 -0.028347613 -0.051558673 0.02510383 -0.07042565 -0.041499924 0.23352882 -0.05579567 0.16296701 0.01910793 0.18132114 0.292186 0.19550173 0.1405184 -0.14871715 -0.057702594 0.011597738 0.13453203 -0.21536861 -0.103475474 0.1121145
18 0.14591156 -0.19040565 0.14639874 0.10656736 0.07063777 -0.21512 0.040306542 0.13122946 -0.25978202 -0.012517337 0.11238807 -0.13918781 0.013313263 0.1242497 -0.10398549 0.17111565 -0.04635588 0.05193136 -0.024667615 0.16389476 0.32081592 0.062814556 0.42884022 -0.061332207 0.14783299 0.1615075 -0.30135962 -0.15264586 -0.22582874 -0.18600677 -0.004580324 0.05324636 -0.22804359 -0.28930026 0.12420243 0.15208746 0.21319066 0.17718215 0.24579279 0.0207024 0.040019233 0.15362327 -0.09879423 -0.2930416 -0.031624094 -0.054889813 0.0247954 -0.08918015 -0.046302143 0.24070972 -0.041967954 0.16458751 0.03709142 0.19766708 0.29501358 0.20066087 0.13175873 -0.15652634 -0.048503317 0.034893446 0.14192063 -0.225567 -0.0941315 0.119006135
17 0.2866314 -0.15630268 0.12150248 0.20262197 0.13029425 -0.023695983 0.106936134 0.19838269 -0.22434732 0.028248385 0.08918887 -0.31353205 -0.278663 0.4266831 -0.3752758 0.5065238 -0.18719257 0.024632102 0.0287808 0.09093113 0.53717995 0.08971987 0.59552455 0.0064135822 0.02921295 0.39411432 -0.16762707 -0.4756101 -0.5697441 -0.36910954 0.24609321 -0.15319146 -0.35930753 -0.3212757 0.08609431 0.30511135 0.3757035 0.099665284 0.11430208 -0.22459935 -0.12976243 0.29062152 -0.20216613 -0.4157074 -0.04549718 -0.23888656 -0.26422378 -0.11429424 -0.04121676 0.22992353 -0.07640149 -0.021059856 0.1107297 0.37220237 0.52193296 0.14618348 0.21069746 -0.3323952 -0.2734074 -0.078066334 0.2839619 -0.3300457 0.034096457 0.114922665
23 -0.12888023 0.16412587 0.19180135 0.10376095 -0.055777412 -0.2028002 0.089764595 0.04594396 -0.085839644 -0.087875016 0.22789215 0.07424741 0.34256494 -0.15453842 0.11559629 -0.037853055 -0.17431179 0.029199235 0.055585586 0.14089021 -0.057177797 0.08963279 0.27612975 -0.15622877 0.005598545 0.18468969 -0.17528878 0.0931849 0.14230455 -0.019970294 -0.25395575 0.11527052 -0.44611907 -0.34319326 0.15858755 0.22072299 -0.020354684 0.33477464 0.3316411 0.01822204 0.291138 0.10128002 -0.07559675 -0.2617513 0.056081302 0.13391575 0.022793531 -0.2593615 -0.078714654 0.12296677 0.24625348 0.13581824 0.10981878 0.11745225 0.23759277 0.205097 0.1694031 -0.06653614 0.04291856 -0.1549358 -0.03245607 -0.17282906 -0.13966864 0.085368365
10 -0.031708684 0.018142913 0.20095998 0.076829776 -0.040331826 -0.23297966 0.0666502 0.07236866 -0.17524427 -0.069834545 0.18138967 0.015102192 0.24502765 -0.08037447 0.07799963 0.020510275 -0.11664504 0.023892112 0.023891484 0.15800436 0.07203268 0.07921816 0.33653906 -0.11178627 0.105845995 0.14791219 -0.20562543 0.045548234 0.054419413 -0.050067745 -0.17289028 0.11044381 -0.34317192 -0.33491609 0.13811389 0.16133848 0.04877676 0.29317465 0.29716256 0.05787898 0.22395928 0.08491716 -0.074276045 -0.26650935 0.048083544 0.10905342 0.091722265 -0.18051958 -0.060233578 0.17599188 0.12904191 0.19536036 0.039540906 0.15224884 0.22415914 0.20762785 0.14566706 -0.056134563 0.064493805 -0.06987089 0.028403014 -0.16889608 -0.11799453 0.10362262
15 -0.10620421 0.16782519 0.22034872 0.10360959 -0.064980194 -0.19083448 0.08205355 0.014191396 -0.04778758 -0.10190362 0.20539546 0.08407297 0.32764634 -0.14748748 0.094094664 -0.0005982829 -0.19703715 0.024638738 0.06862381 0.14005134 -0.044935342 0.10129028 0.29799262 -0.14199255 0.0033995456 0.21104664 -0.14097984 0.08641795 0.13913207 -0.03832895 -0.23538604 0.083608605 -0.43150085 -0.33280072 0.14516209 0.21748443 -0.014073284 0.31130722 0.3265792 0.018446539 0.26503852 0.109320216 -0.09055817 -0.27602953 0.07047741 0.14389934 0.02970432 -0.2696206 -0.10212458 0.10470104 0.24459065 0.13568878 0.091835424 0.13148354 0.2153021 0.20615126 0.16891322 -0.06361013 0.03223871 -0.17032354 -0.034072164 -0.16408417 -0.10632077 0.10531584
19 -0.11422903 0.15399075 0.22258548 0.09786032 -0.06172999 -0.18848194 0.09526254 0.05009894 -0.10006829 -0.07099154 0.22531617 0.08979097 0.31427842 -0.12031528 0.10969987 -0.021432832 -0.16792685 0.04045255 0.081309505 0.14487267 -0.030953268 0.10034404 0.28541636 -0.15738392 0.0115004815 0.1877359 -0.17845005 0.090812445 0.13791786 -0.037246298 -0.23265117 0.09711426 -0.42454952 -0.35366216 0.17303683 0.19995873 -0.007571423 0.33490795 0.32290316 0.03611611 0.27812976 0.10155594 -0.08214203 -0.27087215 0.06473894 0.14877473 0.03505276 -0.23792766 -0.10792305 0.13748802 0.23291652 0.13968778 0.09920889 0.120907895 0.23250447 0.21809931 0.17329529 -0.062977724 0.052310634 -0.14617175 -0.0064060083 -0.18079482 -0.13862444 0.08281892
16 -0.14649348 0.20482045 0.21200128 0.07650033 -0.08861732 -0.21371104 0.072450854 0.013028846 -0.06643459 -0.09638965 0.20924158 0.10640518 0.38893014 -0.18511285 0.13216211 -0.05551939 -0.21458127 0.028768653 0.081651255 0.14479145 -0.076058954 0.09949517 0.29992715 -0.15867138 0.021366652 0.18581772 -0.16668236 0.12785597 0.22837804 0.011711958 -0.29541293 0.12634009 -0.46572912 -0.36057645 0.17779025 0.21721537 -0.05819711 0.37944627 0.3544762 0.052967113 0.3313395 0.06618163 -0.080560595 -0.2684238 0.06727902 0.18909483 0.051078707 -0.29336554 -0.12179367 0.1137702 0.24508026 0.15596986 0.10896817 0.11747017 0.2004938 0.22951408 0.16955097 -0.03498999 0.06916762 -0.19340031 -0.05862544 -0.16460666 -0.13896541 0.08569961
21 -0.09512929 0.13636439 0.20537326 0.075108364 -0.06233334 -0.22287232 0.07795313 0.042364247 -0.11408594 -0.07582257 0.18262298 0.06356132 0.29898414 -0.11981778 0.12145356 -0.0038793057 -0.17300421 0.033967733 0.06931032 0.16342923 -0.0135095995 0.0926195 0.30231577 -0.15034251 0.05457808 0.18220508 -0.16431674 0.09320974 0.16060647 -0.014820118 -0.22873619 0.10209379 -0.42084748 -0.3327825 0.14637522 0.20072661 -0.021241864 0.35100904 0.30479836 0.044367254 0.2816083 0.084585905 -0.07284716 -0.26911116 0.046313323 0.13476436 0.04702655 -0.26253027 -0.09698473 0.12934981 0.20348895 0.14700377 0.09766449 0.15284492 0.22176984 0.21454956 0.15768376 -0.0608594 0.035414066 -0.14639597 -0.027156996 -0.1853005 -0.14287184 0.0756187
27 -0.11463967 0.17180389 0.24237679 0.06782488 -0.07046768 -0.23408177 0.06250496 0.04258989 -0.079347715 -0.10837788 0.20539072 0.083431065 0.36061215 -0.14933121 0.13613473 -0.068031 -0.20372863 0.04973338 0.066567406 0.14916387 -0.035025675 0.0802296 0.31669006 -0.15774909 0.017335122 0.18351284 -0.17336832 0.14076164 0.17836204 -0.00064736936 -0.27886292 0.12386018 -0.45014763 -0.35081282 0.1652978 0.19179611 -0.054392137 0.37415895 0.35613772 0.048367027 0.29714006 0.10899812 -0.101261206 -0.27171725 0.066357695 0.1794577 0.07636594 -0.26946664 -0.09943092 0.12366943 0.20901546 0.1610453 0.09276484 0.13759933 0.23634306 0.24914996 0.14720522 -0.036531553 0.056929737 -0.16059202 -0.035541408 -0.14945152 -0.1296593 0.1076537
12 0.18260188 -0.16831401 0.1310653 0.0970662 0.06775889 -0.16766554 0.049784504 0.13645257 -0.24489133 -0.02429749 0.10660128 -0.1539232 -0.045540817 0.2136173 -0.1597862 0.23078592 -0.054183803 0.043039337 -0.011303042 0.12952964 0.35468504 0.049433697 0.42798334 -0.07214803 0.11324843 0.16290124 -0.26869476 -0.22090559 -0.3072851 -0.1998172 0.051210772 -0.003953342 -0.234848 -0.29568464 0.12605314 0.15022439 0.21104832 0.15060022 0.20853068 -0.015020335 -0.030345736 0.17987023 -0.11950513 -0.3062974 -0.026055552 -0.09168418 -0.04310348 -0.08884954 -0.043025862 0.23695067 -0.06878563 0.1599483 0.034062415 0.20073946 0.33912662 0.17951755 0.14101294 -0.1460781 -0.06534924 0.027880449 0.14550062 -0.25336504 -0.072765455 0.07619315
